tree
version=v4
num_class=1
num_tree_per_iteration=1
label_index=0
max_feature_idx=172
objective=lambdarank
feature_names=feature.BETA10 feature.BETA20 feature.BETA30 feature.BETA5 feature.BETA60 feature.CNTD10 feature.CNTD20 feature.CNTD30 feature.CNTD5 feature.CNTD60 feature.CNTN10 feature.CNTN20 feature.CNTN30 feature.CNTN5 feature.CNTN60 feature.CNTP10 feature.CNTP20 feature.CNTP30 feature.CNTP5 feature.CNTP60 feature.CORD10 feature.CORD20 feature.CORD30 feature.CORD5 feature.CORD60 feature.CORR10 feature.CORR20 feature.CORR30 feature.CORR5 feature.CORR60 feature.HIGH0 feature.IMAX10 feature.IMAX20 feature.IMAX30 feature.IMAX5 feature.IMAX60 feature.IMIN10 feature.IMIN20 feature.IMIN30 feature.IMIN5 feature.IMIN60 feature.IMXD10 feature.IMXD20 feature.IMXD30 feature.IMXD5 feature.IMXD60 feature.KLEN feature.KLOW feature.KLOW2 feature.KMID feature.KMID2 feature.KSFT feature.KSFT2 feature.KUP feature.KUP2 feature.LOW0 feature.MA10 feature.MA20 feature.MA30 feature.MA5 feature.MA60 feature.MAX10 feature.MAX20 feature.MAX30 feature.MAX5 feature.MAX60 feature.MIN10 feature.MIN20 feature.MIN30 feature.MIN5 feature.MIN60 feature.OPEN0 feature.QTLD10 feature.QTLD20 feature.QTLD30 feature.QTLD5 feature.QTLD60 feature.QTLU10 feature.QTLU20 feature.QTLU30 feature.QTLU5 feature.QTLU60 feature.RANK10 feature.RANK20 feature.RANK30 feature.RANK5 feature.RANK60 feature.RESI10 feature.RESI20 feature.RESI30 feature.RESI5 feature.RESI60 feature.ROC10 feature.ROC20 feature.ROC30 feature.ROC5 feature.ROC60 feature.RSQR10 feature.RSQR20 feature.RSQR30 feature.RSQR5 feature.RSQR60 feature.RSV10 feature.RSV20 feature.RSV30 feature.RSV5 feature.RSV60 feature.STD10 feature.STD20 feature.STD30 feature.STD5 feature.STD60 feature.SUMD10 feature.SUMD20 feature.SUMD30 feature.SUMD5 feature.SUMD60 feature.SUMN10 feature.SUMN20 feature.SUMN30 feature.SUMN5 feature.SUMN60 feature.SUMP10 feature.SUMP20 feature.SUMP30 feature.SUMP5 feature.SUMP60 feature.VMA10 feature.VMA20 feature.VMA30 feature.VMA5 feature.VMA60 feature.VSTD10 feature.VSTD20 feature.VSTD30 feature.VSTD5 feature.VSTD60 feature.VSUMD10 feature.VSUMD20 feature.VSUMD30 feature.VSUMD5 feature.VSUMD60 feature.VSUMN10 feature.VSUMN20 feature.VSUMN30 feature.VSUMN5 feature.VSUMN60 feature.VSUMP10 feature.VSUMP20 feature.VSUMP30 feature.VSUMP5 feature.VSUMP60 feature.VWAP0 feature.WVMA10 feature.WVMA20 feature.WVMA30 feature.WVMA5 feature.WVMA60 feature.fund__book_to_market_ratio_lyr feature.fund__ep_ratio_ttm feature.fund__ev_lf feature.fund__ev_lyr feature.fund__ev_no_cash_ttm feature.fund__ev_ttm feature.fund__inc_book_per_share_ttm feature.fund__income_from_main_operations_lyr feature.fund__inventory_turnover_ttm feature.fund__invested_capital_lf feature.fund__invested_capital_lyr feature.fund__market_cap feature.fund__market_cap_2 feature.fund__market_cap_3 feature.fund__pb_ratio_lyr
feature_infos=[-0.55210524797439575:0.18040774762630463] [-0.55210524797439575:0.18040774762630463] [-0.55210524797439575:0.18040774762630463] [-0.55210524797439575:0.18040774762630463] [-0.55210524797439575:0.18040774762630463] [-1:1] [-1:0.94444441795349121] [-0.86666667461395264:0.94444441795349121] [-1:1] [-0.8571428656578064:0.94444441795349121] [0:1] [0:1] [0:0.89999997615814209] [0:1] [0:0.8571428656578064] [0:1] [0:0.94999998807907104] [0:0.94444441795349121] [0:1] [0:0.94444441795349121] [-1:1] [-1:1] [-1:1] [-1:1] [-1:1] [-1:1] [-1:1] [-1:1] [-1:1] [-1:1] [1:2.5692307949066162] [0.10000000149011612:1] [0.05000000074505806:1] [0.033333335071802139:1] [0.20000000298023224:1] [0.01666666753590107:1] [0.10000000149011612:1] [0.05000000074505806:1] [0.033333335071802139:1] [0.20000000298023224:1] [0.01666666753590107:1] [-0.89999997615814209:0.89999997615814209] [-0.94999998807907104:0.94999998807907104] [-0.96666663885116577:0.96666663885116577] [-0.80000001192092896:0.80000001192092896] [-0.98333334922790527:0.98333334922790527] [0:1.1110538244247437] [0:0.19850903749465942] [0:1] [-0.61077845096588135:0.47631451487541199] [-1:1] [-0.53293412923812866:0.28789824247360229] [-1:1] [0:0.6236836314201355] [0:1] [0.66987371444702148:1] [0.60577011108398438:2.2365012168884277] [0.50102764368057251:4.199275016784668] [0.44873720407485962:6.5913043022155762] [0.71778339147567749:1.514285683631897] [0.31005322933197021:12.78937816619873] [1:4.8714561462402344] [1:7.2809276580810547] [1:12.02173900604248] [1:3.9689533710479736] [1:21.215385437011719] [0.3522714376449585:1] [0.1644558310508728:1] [0.1644558310508728:1] [0.47018551826477051:1] [0.070039384067058563:1] [0.67736244201660156:2.5692307949066162] [0.47990700602531433:1.5000253915786743] [0.27355316281318665:2.6216216087341309] [0.20605820417404175:5.473846435546875] [0.55945348739624023:1.202197790145874] [0.077165111899375916:10.995652198791504] [0.72193044424057007:3.273775577545166] [0.56429404020309448:6.346649169921875] [0.50025755167007446:10.656521797180176] [0.86562502384185791:1.8329669237136841] [0.36730587482452393:18.572309494018555] [0.10000000149011612:1] [0.05000000074505806:1] [0.033333335071802139:1] [0.20000000298023224:1] [0.01666666753590107:1] [-0.29394990205764771:0.662090003490448] [-0.61751037836074829:0.67295801639556885] [-0.74913150072097778:0.98339986801147461] [-0.21972127258777618:0.13898198306560516] [-3.2498421669006348:3.2364089488983154] [0.35514643788337708:6.0892391204833984] [0.23379980027675629:7.0428476333618164] [0.19274809956550598:12.304347038269043] [0.49301579594612122:2.0362317562103271] [0.074749141931533813:20] [0:1] [0:1] [1.0943807980060699e-13:1] [0:1] [1.8499016608917312e-14:1] [0:1] [0:1] [0:1] [0:1] [0:1] [0.00038216530811041594:1.3471907377243042] [0.00045194115955382586:2.9263341426849365] [0.00066087563754990697:4.8733358383178711] [0:0.39149263501167297] [0.0007817233563400805:6.1281623840332031] [-1:1] [-1:1] [-1:1] [-1:1] [-1:1] [0:1] [0:1] [0:1] [0:1] [0:1] [0:1] [0:1] [0:1] [0:1] [0:1] [0.1064680740237236:370.20068359375] [0.070322073996067047:439.65570068359375] [0.055501330643892288:630.5638427734375] [0.20526915788650513:461.13717651367188] [0.040222335606813431:914.4381103515625] [0.0038100590463727713:861.96466064453125] [0.0038100590463727713:605.189697265625] [0.0038100590463727713:616.40765380859375] [0.0038100590463727713:530.97393798828125] [0.0038100590463727713:826.7576904296875] [-1:1] [-1:1] [-1:1] [-1:1] [-1:1] [0:1] [0:1] [0:1] [0:1] [0:1] [0:1] [0:1] [0:1] [0:1] [0:1] [0.25110471248626709:1.8568358421325684] [0.0086784884333610535:3.1176555156707764] [0.0086784884333610535:4.3397178649902344] [0.0086784884333610535:5.24456787109375] [0:2.2360680103302002] [0.0086784884333610535:6.2095241546630859] [-1.4668734073638916:4.5661735534667969] [-6.8159842491149902:2.8645122051239014] [-0.33658513426780701:8.0896549224853516] [-0.3383670449256897:8.0733613967895508] [-0.33787429332733154:8.0904273986816406] [-0.33589440584182739:8.1396198272705078] [-3.4836599826812744:5.9500060081481934] [-0.47303873300552368:7.2797842025756836] [-0.28741022944450378:8.6086606979370117] [-0.38924521207809448:7.074462890625] [-0.38939687609672546:7.095097541809082] [-0.46983742713928223:7.2935080528259277] [-0.48417407274246216:7.2126955986022949] [-0.47008809447288513:7.1875944137573242] [-0.85461747646331787:6.499626636505127]
tree_sizes=10465 13420 12637 8790 7754 9557

Tree=0
num_leaves=90
num_cat=0
split_feature=46 171 141 102 29 124 59 10 128 172 171 46 158 153 158 165 171 163 26 167 145 161 155 170 169 46 163 66 169 22 133 172 20 96 172 23 163 164 75 23 131 45 29 40 169 165 26 29 33 2 28 134 40 166 27 170 103 89 89 105 94 54 46 67 45 2 170 135 170 96 120 172 50 102 172 36 150 155 158 120 112 50 89 159 159 11 168 93 67
split_gain=13.6845 6.52868 7.18005 6.43878 5.09859 4.75528 4.36092 3.58471 3.26661 2.92013 2.87938 2.71817 2.69305 1.90135 1.92357 1.89308 1.88897 1.77394 1.56596 1.54421 1.49164 2.61082 3.97697 1.97565 1.38397 1.35401 1.31428 1.23518 1.21223 1.16721 1.08201 1.47398 1.07938 0.97502 1.15967 0.969294 0.907078 0.879829 0.981551 0.878603 0.859257 0.842954 0.768144 0.861871 0.778443 0.767889 0.767662 0.764677 0.762601 0.730385 0.723538 0.720195 0.697863 0.6933 0.879111 0.691285 0.664432 0.594608 0.605239 0.593459 0.585085 0.528359 0.510101 0.479928 0.452244 0.447831 0.529313 0.423082 0.455089 0.380873 0.375599 0.398881 0.366411 0.36517 0.359805 0.345438 0.312377 0.312219 0.282665 0.282154 0.27629 0.208421 0.206572 0.168854 0.165501 0.153053 0.152343 0.142359 0.0281194
threshold=0.028880939818918708 6.591581106185914 0.0052013110835105189 0.13998550176620486 0.091723293066024794 0.45454551279544836 1.052001476287842 0.52777779102325451 1.914673447608948 -0.74367970228195179 6.674530267715455 0.071097131818532958 -0.10755953565239905 1.1194813847541811 0.15305819362401965 0.80718457698822033 -0.40059003233909601 6.0862376689910898 0.15063594281673434 -0.37438301742076868 0.53390234708786022 7.6344182491302499 1.2721912264823916 4.6521782875061044 -0.17673320323228833 0.013246912974864246 7.6641104221344003 0.96465346217155468 -0.39408780634403223 0.34324114024639135 0.36232510209083563 -0.4402239173650741 0.73725184798240673 1.0583767890930178 -0.42390966415405268 0.91186687350273143 -0.30261294543743128 0.65040415525436412 0.99279281497001659 -0.31515194475650782 1.7504053115844729 -0.92500001192092884 0.3364605456590653 0.97499999403953563 -0.38952374458312983 -0.40471196174621576 -0.47680689394474024 -0.029326311312615868 0.48333333432674414 0.013437992893159391 -0.4334575086832046 0.53457003831863414 0.84166666865348827 -0.23407796025276181 0.78349578380584728 -0.30781997740268702 0.51998183131217968 -0.041390188038349145 -0.087397050112485872 0.18191617727279666 1.006320655345917 0.71428585052490245 0.021680183708667759 0.99664419889450084 0.5416666865348817 -0.007429413264617323 -0.40065693855285639 0.25695686042308813 -0.37609264254570002 1.1866307258605959 0.87342700362205516 0.18457029759883883 0.42167752981185919 0.081104818731546416 -0.44665317237377161 0.15000000223517421 0.54706528782844555 1.6255165934562685 0.79652148485183727 0.78433960676193248 -0.16864986717700955 0.30000095069408422 -0.0488069150596857 0.065638810396194472 -0.84669548273086537 0.54772728681564342 -0.059147290885448449 1.0887876152992251 0.93103280663490307
decision_type=8 10 10 8 10 8 10 2 10 10 10 8 10 8 10 8 8 10 8 10 10 10 10 10 10 10 10 8 8 8 8 10 8 10 10 8 8 10 10 8 10 2 10 2 10 10 10 10 10 10 8 10 2 10 10 10 10 8 10 10 8 10 10 10 2 10 8 8 10 10 8 8 8 10 8 10 8 8 8 10 8 10 8 10 10 2 10 8 10
left_child=1 6 4 10 -3 9 8 -6 12 55 16 17 28 14 48 25 46 30 45 -15 21 35 -23 24 -22 72 27 -16 47 33 31 32 -7 53 41 -14 -33 38 50 56 -17 -35 43 -21 -44 -13 -2 85 52 -41 -20 69 -11 54 -18 88 -32 58 -27 -53 70 65 -59 73 -49 84 -67 81 -69 -30 71 -31 75 -62 -40 -10 86 -42 -65 -36 -55 -39 -78 -50 -48 -1 -47 -72 -5
right_child=3 2 -4 5 7 11 -8 -9 15 13 -12 18 20 19 26 40 29 -19 37 42 23 22 -24 -25 -26 57 -28 -29 51 60 39 36 -34 34 79 -37 -38 67 74 49 77 -43 44 -45 -46 76 61 64 83 -51 -52 59 -54 80 -56 -57 -58 62 -60 -61 63 -63 -64 78 -66 66 -68 68 -70 -71 87 -73 -74 -75 -76 -77 82 -79 -80 -81 -82 -83 -84 -85 -86 -87 -88 -89 -90
leaf_value=0.00065617743356693699 -0.0018080542894929707 -0.011288348522615189 0.004921997824987384 -0.00057246449775813957 0.0048295922138499401 0.0025412583958525476 -0.007532084316250574 -0.0056989904882591511 -0.00026786024945370945 -0.00068177525253037706 0.009406220599811211 0.004037517898908825 0.0033348436414824892 -0.0063949820904104452 0.0066948541654099879 0.0013181534328924843 -0.0047897106404840468 -0.005445614347055391 0.00067827558281038914 0.0029175649574333445 0.0048086441559399527 0.0038633524007658233 -0.0080599098640706055 0.0092277808941419633 0.0015951462553860339 -0.0021614699523384339 -0.0020933954622472796 0.00016714941736930506 0.002115217239732656 0.0024196678606069029 0.0016182504112962281 0.0016498986565062739 -0.0019818347270752577 -0.00088513985871851693 -0.0015355235444836025 -0.00043361623338467942 -0.0025036713691435541 0.0006154578193417221 0.0018538433287730589 -0.0028438642467930801 -0.0071855818231403362 0.0061662090210489531 0.0019678181748524256 -0.0025475500443431264 -0.0027675665107866217 -0.0008795370523739768 -0.0017885509353415849 0.0042183316599299202 -0.0041809868217377892 0.00191451419162737 -0.0068794260710325437 0.0014233242458084542 0.0022254437978564234 0.0017645355244046211 0.0021619003957050694 -0.0080349273891178099 -0.0022372225556888527 0.00010478985698722041 0.0025434934215093088 -0.001390683829441206 -0.0048240443461531621 -0.0010341903628138911 -0.0026470597004039052 -0.0012992349606768736 -0.00043868604420008346 0.0076671842211808389 0.00095106002186595056 -0.0018216181371723792 0.0032512950097955844 -0.00073054393893800867 -0.0025581742506263928 -0.0016245725617257019 -0.00049928721931448742 -0.00054638482516206088 -0.0022730326991328097 0.005643208853469848 0.00060421422402352775 -0.00013543194507906379 0.0028114800727977564 0.0012407919266457324 -0.0015981847911780891 -0.0039071239485061393 -0.0038714148729595017 4.4054175645139338e-05 0.001533410187419859 -0.0026735989637671391 0.0023259045153157486 0.00077744682451352158 0.00079524932902927631
leaf_weight=4.0693591243907568 2.254482452874071 31.190206214640057 22.075316421498428 2.1908416733931508 16.167714239330966 66.783389927215467 9.1778873481234751 15.643631505372467 3.6017592713760704 55.240171274999739 7.476758745047845 3.7025455216935397 246.8392760135539 10.245898805427712 43.492706348188221 3.7290512444451478 14.476109067487416 48.750292822296615 3.4992131577746477 32.667691778333392 164.93440595013089 12.694547464227073 13.917814223852472 26.980153198601329 97.342090971644211 6.1727969705534624 5.8647460776119251 15.470010395089046 78.172669091654825 22.463163803520729 33.611930379527621 18.211394878831925 20.72523402555089 5.5399278134864316 13.098438975357565 28.143998927262146 110.53201529315993 2.3401373070955769 4.1067664084112039 327.76176094874972 12.340258007010558 26.002595405792817 10.689505801099584 7.2240204516856457 44.360778472895618 4.1023168047977379 1.8783031352068063 62.679494377051014 6.3838218681630661 6.8159668900916577 118.26912092859129 32.543060435564257 60.592188047914533 26.49027082057728 3.6477252396725808 10.177790536952669 20.305740235475241 59.876153353005066 33.925608734134585 97.124024094693596 23.931669050682103 2.0925591946288469 37.933064041135367 5.7474740429752256 7.4183497462945516 20.947805851174053 9.2551264982175798 3.9555063221632745 6.5721744684706183 18.496467682009097 9.8703650678362429 5.896810445381564 4.0190214291651527 14.143776323297059 14.08751222175488 17.248731029467308 2.2337542787718121 3.2705098156584436 2.3754095585463801 30.634142680341029 4.6934213164204293 4.7662151269178139 8.2657479772897187 4.6513229900592705 2.1909508061071383 3.2977409687737236 2.0237733964313547 1.7802334251900909 2.3441199701774167
leaf_count=3678 1174 3279 3234 3130 2833 52542 5215 1746 3225 67611 626 2100 225467 3953 29624 2839 14089 3945 2808 34640 161761 2592 1848 2681 75087 6469 257 14303 93704 20686 33851 19500 15776 4359 17366 24327 135341 2173 2985 325743 7479 18471 11155 7827 45861 5687 1252 68096 6006 5930 108828 40521 74612 29780 3084 2250 20032 58925 33450 116638 25561 1374 39021 7047 8299 19442 12442 4054 4668 25270 11671 7250 3771 15098 15084 16158 2072 3109 1101 38914 5090 3953 8251 6205 3080 2446 986 2124 2963
internal_value=4.04865e-05 0.00162845 -0.00343783 -0.00128998 -0.00664003 -0.00193093 0.0020531 -0.000472681 0.00220336 0.000174281 0.00152742 -0.0027126 0.00269544 0.000701692 0.00185397 -0.000228468 0.000937734 -0.00205955 -0.00487395 -0.00137688 0.00347598 0.00235844 -0.00287057 0.00452344 0.00371837 0.000580722 0.00439908 0.00525477 0.001115 0.000112672 -0.00170244 -0.000534769 0.00137664 0.00131051 0.00261735 0.00294747 -0.00183956 -0.00551026 -0.00601391 -0.00232269 -0.00491578 0.0050128 -0.000277555 0.00161563 -0.00168691 0.00024942 0.00449167 0.00311695 0.000327066 -0.00269418 -0.00662725 0.000326921 0.000894999 -0.000789493 -0.00311936 -0.00644563 4.34049e-05 -0.000289315 0.00153233 -0.000633099 -0.00157465 0.00518795 -0.00110899 -0.00289237 0.00373225 0.00571564 0.00635763 -0.000783062 0.00138639 0.00155327 0.000220977 0.00137447 0.00410466 -0.00367921 -0.00101439 0.00486627 -0.00179376 -0.00633815 0.000790909 0.000278236 0.000993247 -0.00292865 -0.00308898 -0.0032258 -0.000181333 -0.00151556 0.00096506 -0.00192481 0.000195242
internal_weight=2570.93 1171.03 85.0769 1399.91 63.0016 1143.02 1085.95 31.8113 1076.77 311.596 256.888 831.423 894.653 296.883 191.695 182.117 249.411 653.498 177.925 105.188 590.852 301.596 26.6124 289.257 262.276 162.777 64.8275 58.9627 303.801 210.792 604.747 216.252 87.5086 124.583 75.2751 274.983 128.743 157.597 139.963 388.495 19.3398 31.5425 94.942 39.8917 55.0503 20.3281 38.6192 77.4649 126.868 334.578 121.768 226.336 115.832 49.3075 18.1238 14.7128 53.9177 137.908 40.0984 129.667 86.2089 36.3647 97.8092 46.1983 70.0978 34.2722 30.2029 17.634 10.5277 96.6691 40.0106 28.36 24.8695 38.0754 18.1943 20.8505 16.6256 15.6108 8.12288 43.7326 31.1837 7.10635 10.4995 11.0351 4.06925 7.3671 6.12609 11.6506 4.53496
internal_count=2390955 1043168 11092 1347787 7858 1086706 1032076 4579 1026861 310397 261081 776309 852415 302054 198618 174446 260455 612660 163649 103436 493763 254234 4440 239529 236848 161019 44184 43927 358652 221691 608715 223159 68318 131153 79110 249794 154841 144553 129705 385556 13427 22830 99483 42467 57016 19096 38764 82519 154434 331673 111636 276133 142223 52043 17173 8343 53883 137865 39919 157159 90538 37590 97946 48807 76395 36216 31884 14848 8722 118974 41731 27936 23154 40659 18069 19383 16996 10588 8148 56280 34870 6126 10323 12211 4332 6124 6673 13795 6093
is_linear=0
shrinkage=0.02


Tree=1
num_leaves=116
num_cat=0
split_feature=66 46 169 163 172 158 49 169 162 65 169 40 165 29 132 170 124 172 40 79 87 167 165 55 94 89 67 172 60 50 3 59 158 46 168 46 97 105 152 14 46 87 79 132 122 80 68 108 110 160 158 46 64 5 77 94 161 136 66 155 109 152 147 46 162 89 99 56 28 109 131 169 89 168 97 2 131 152 170 160 49 64 108 170 116 67 151 153 132 158 28 172 32 76 169 48 127 105 90 132 103 103 150 157 24 90 3 51 157 51 65 53 51 165 109
split_gain=22.6559 15.4512 8.06132 13.3492 8.00627 6.12582 8.00655 4.25511 4.63718 3.76173 3.61419 4.22639 5.54013 4.81438 3.37656 3.37008 3.32953 3.17224 3.12161 3.5409 3.02318 4.14127 3.55238 3.48702 2.8366 2.41493 2.23602 2.23528 2.20394 2.13673 1.9522 1.8573 1.80441 1.7498 1.69696 1.60989 1.55479 1.44302 1.70824 2.285 1.39984 1.31503 1.32482 1.30643 1.30589 1.29488 1.601 1.16741 1.1661 1.52779 1.34763 1.13079 1.12329 1.1156 1.05382 0.952705 0.945449 0.894782 0.862145 0.853226 0.82058 0.809287 0.803829 0.764989 0.754894 0.712135 0.704628 0.704137 0.92553 0.856083 0.889303 0.697991 0.676542 0.656972 0.636904 0.605145 0.576662 0.57317 0.564552 0.554389 0.531295 0.528025 0.511238 0.482337 0.461578 0.432766 0.413161 0.701289 0.40834 0.403392 0.394478 0.393654 0.391252 0.355934 0.350824 0.324878 0.291335 0.245097 0.243628 0.236171 0.206113 0.201622 0.171177 0.163321 0.163301 0.155513 0.146604 0.124635 0.119621 0.115993 0.104549 0.102373 0.0879601 0.0787519 0.0460787
threshold=0.98535656929016124 0.053571423515677459 4.6886820793151864 -0.27644424140453333 -0.46546056866645807 0.15305819362401965 -0.0042293102014809838 -0.39947646856307978 4.1547975540161142 1.0150933265686037 -0.40391743183135981 0.5416666865348817 7.1324660778045663 -0.099697906523942934 0.25165028870105749 -0.40360273420810694 0.44822819530963903 -0.73484149575233448 0.10833333432674409 1.2172911763191225 -0.0034864881308749314 7.0018424987792978 7.1324660778045663 0.99547514319419872 0.97667852044105541 -0.10377649217844008 0.94268730282783519 -0.45305852591991419 0.99116554856300365 0.705857813358307 0.00126884673954919 1.052001476287842 -0.99966129660606373 0.0124799688346684 -0.29395686089992518 0.025407463312149051 0.028933336026966575 0.18602603673934939 1.0220222473144533 0.54316771030426036 0.022130190394818786 -0.016054424457252022 1.0436275005340578 0.94976589083671581 0.35666765272617346 1.0389083623886111 0.8602818250656129 0.034952823072671897 0.020338639616966251 -0.30872128903865809 0.32386852800846105 0.032636942341923721 1.0689498186111452 -0.47222222387790674 0.96307367086410534 1.0867688059806826 1.8499361276626589 0.65433174371719371 0.98056554794311535 1.4529485106468203 0.10208901390433313 1.2537549734115603 0.56114071607589733 0.027120684273540977 -0.32343311607837671 -0.035368142649531358 0.36749219894409185 1.0184946656227114 -0.70295351743698109 0.080238301306962981 1.2872660160064699 -0.43972732126712794 -0.011329541914165018 0.03179579786956311 0.46038283407688146 -0.0032378904288634654 1.4785490036010744 1.032878637313843 -0.39583487808704371 -0.30161495506763453 -0.0029305197531357403 1.0231779217720034 0.029600587673485283 -0.42307174205780024 -0.076923090964555726 0.91777488589286815 0.50036546587944042 1.0115358233451845 0.30607415735721594 0.1000054068863392 -0.16440968960523603 -0.26111499965190882 0.22500000149011615 1.1731597781181338 -0.34323841333389277 0.6571091115474702 1.4683923721313479 0.52777728438377391 -0.0019885752117261286 0.55937424302101146 0.013520231470465662 0.35306160151958471 0.45542468130588537 1.7437723278999331 0.44701161980628973 0.00023967838933458554 0.0003972356789745391 0.0020158922998234634 1.5953060388565066 -0.032804703339934342 1.3086608052253725 0.0059179442469030627 -0.0089681376703083498 -0.095204412937164293 0.034371225163340575
decision_type=10 8 10 8 8 10 10 8 10 10 10 2 8 10 10 8 8 10 2 10 10 8 10 10 10 10 10 8 10 10 10 10 10 8 8 10 10 10 10 2 10 10 10 10 10 10 10 10 8 8 10 10 10 2 10 8 10 10 10 10 10 10 10 10 8 10 10 10 10 10 10 10 8 10 10 10 10 10 8 8 10 10 10 8 8 10 10 10 10 10 10 10 10 10 8 10 10 10 8 10 10 10 8 8 10 8 10 10 10 10 8 10 10 10 10
left_child=1 4 3 15 10 -4 -7 25 9 40 41 20 17 -14 -15 18 29 30 28 34 22 35 24 -23 -12 -6 -19 67 -2 31 -13 48 -33 59 36 -22 -20 38 39 -27 -9 57 63 53 78 46 -39 91 50 -50 88 66 -10 98 -31 -51 -35 -1 92 -11 71 64 79 112 -55 -59 -30 72 84 70 -70 -44 73 111 -40 86 -47 110 90 -29 106 113 103 -21 108 -65 101 -88 -3 107 -17 105 -34 -83 -84 -66 -71 -82 -18 -91 -96 -56 -75 -64 -93 -46 -74 -80 -69 -79 -49 -5 -43 -81 -42
right_child=2 16 5 27 7 6 -8 8 52 33 11 12 13 14 -16 44 43 26 19 83 21 23 -24 -25 -26 37 -28 62 51 54 -32 32 58 56 -36 -37 -38 45 74 -41 114 42 60 -45 47 76 -48 77 49 55 -52 -53 -54 61 75 -57 -58 65 -60 -61 -62 -63 82 85 95 -67 -68 68 69 96 -72 -73 80 102 -76 -77 -78 109 89 81 97 93 94 -85 -86 -87 87 -89 -90 99 -92 104 -94 -95 100 -97 -98 -99 -100 -101 -102 -103 -104 -105 -106 -107 -108 -109 -110 -111 -112 -113 -114 -115 -116
leaf_value=0.0028998068593336659 -0.0028171896714188531 -0.0049294810430685751 0.0010443224874963567 0.00094199613008906329 -0.0034191107996694044 0.01204386453377757 0.0025550509997089919 0.0072596039178944808 8.9760160143005107e-05 0.0035087573866530624 -0.0029538206807479118 -0.0078526539974458614 -0.0019945222921546168 -0.00068567652148057495 0.0094201145240361637 0.00040563534366494329 0.0025715814217402294 0.0022745370157422158 0.00095171146290548819 -0.0045037102381101672 0.0011842247904317949 -0.0086721767727087479 0.0066926268908504239 0.0018948569519118498 0.0025532323611676807 0.0071879658249330135 -0.00050202281763595165 0.0015770426659730272 -0.0030796318300452862 -0.0026756038947058618 0.00097969351070632598 -0.0043227710178277267 0.00027630998831644076 -0.0025934810515389995 -0.00018987743260925845 -0.0020913339498702054 0.0062235064909305872 -0.0024112304249393609 -0.0029738770825875924 -0.0015424580497822133 0.00042903048297138305 0.00023579201966667337 0.00063367396978121883 0.0013747379224167999 0.0028134382515819446 -0.0055185359048027863 0.0018393541063991211 -0.0066960460074441518 0.0022247761724644346 0.00057153813204118529 0.0021473932446656021 0.0040846760137657964 0.008986895634996989 0.00087636155042056067 -0.0013183449945808035 -0.0058669750571805034 -0.0055083399246289135 -0.0054316958269383583 -0.0014671182881339459 -0.0017038318960184494 0.00042129956644393091 0.001228930092409734 -0.0032475183765000239 -0.0020191728223119812 -0.005934243239795029 0.00093190353590542722 0.0022724936800851241 0.0044956895618507549 -0.0040634826400793153 0.0036100268868669801 -0.0002181483230607608 0.0076696419555311044 0.0026248152868944014 0.0067508018995816599 0.0022456347064011869 -0.0010579217941051086 0.00035427920927180517 -0.001111238664220229 -0.0011990913696770938 -0.00058744775105555689 -0.0028832214243206286 -0.0040070349545945913 0.0041271748833238584 0.00061850345732901706 -0.0012983676525242314 0.0016431518747515321 0.0080050383955279306 -0.00013134086652492061 0.00038935146321178048 0.0029430421705629833 0.0053753937187970436 -0.002556312319080004 0.0069955024531699129 0.00065956625444178632 0.0017609008174047866 -0.00058433955125791282 -0.00096484759062601361 0.0011003198664344546 -0.0013107117051609888 -0.00064858247791469662 -0.0014353998387889753 0.0020568633142021586 0.00041199575128037153 0.00061713932632767837 0.00081707026552958111 -0.00039818758453115957 -0.00065513882405774564 0.0012404973266427872 0.00040450934085727665 0.0016115099235448013 -0.00082260447351392208 -0.0014097446397908298 0.0040853879994452256 0.0016919735899708999 -0.0013578736484403983
leaf_weight=8.6842986542324088 32.126227680244483 13.153828641457951 81.25383752695052 7.1960100618889573 42.134800146683119 77.477087463426869 71.378758256789297 12.329847196175253 8.5526644146157214 19.774784141642158 67.226181413396262 17.054366050899265 21.916210733746993 14.479554308461955 65.077738295251038 11.071632298146143 3.9411547021882143 265.11676790406636 28.465788660236285 8.5674739452660997 89.88265549778589 45.526031515124487 27.09089077936369 12.069491648609981 62.676713407243369 38.768198097182903 195.35246885870583 3.3274017406220082 12.472644513763955 5.8377418166201087 12.726772618581888 5.3352756276726749 5.1885769554937751 699.22035759640858 19.420993299718248 144.38675673305988 291.87245941668516 36.408010698098224 13.280183767841665 11.814941414369967 2.9499981750850548 3.9322636238066506 8.2980123329325561 8.0075838879565691 13.939152184990235 9.9634389591519739 148.38835980789736 10.381502920063213 6.554839912627358 8.2995921780238842 24.461673580037314 56.062116052198689 8.1634211108903383 4.3673077127896249 4.7318860327650345 86.764769517758396 48.405853350646794 6.2332678166567339 4.2881251250510095 13.740158780317868 10.213657850952584 3.5801141881092908 5.7654529721767185 17.599671136369579 294.28504586170311 8.0437193189864029 8.201206603960598 9.4490592122456274 39.260191319917794 7.5078987901506462 49.376345420954749 52.230315572072868 11.896667689419703 8.1302476384735165 6.5395936419372438 4.9159265315975089 8.3477630711568036 2.7031694047909696 30.914011178887449 4.3591773817606736 13.901927334518406 149.01913337229053 4.1260326003830414 8.661023223219674 4.5761877103068427 14.529157608863896 8.787799257115692 5.0605454241158432 5.8615049395593806 18.180963436316237 14.175514504458986 6.4676568123104499 10.664890806161564 4.0968951957183881 3.5322860311716822 6.954543941654264 3.1203961438441183 2.4464360281417603 3.6764125367044462 5.700892529799602 10.193037299846763 4.2112709982902743 3.3967202833446217 2.2608199948153933 2.9859668438730296 5.0820219353481706 2.779965949128381 1.9456903735408548 5.8776748263335312 2.9450522493862072 4.6253695918421736 3.0462932270311285 23.358675124691217 2.9068751788290674 7.4574129366083071
leaf_count=3872 2127 9620 3967 5855 1852 2560 2469 4215 3719 11345 49734 7059 1754 3416 8303 2432 1640 102067 2986 2426 68759 8788 1041 1675 27779 9328 86177 1043 2616 3081 8495 2018 3258 775238 2197 59721 34347 31173 4701 2807 3256 4675 2150 3979 10152 3568 129581 4424 2047 3697 2207 3221 436 2348 2502 39387 10188 830 2142 6312 1674 2961 5116 8321 301191 3902 2447 4435 26898 4635 40716 18494 11506 4234 1513 1761 2686 2279 34196 4261 11470 139853 1198 1649 4072 6957 2366 3561 4578 14205 3644 4341 4102 4167 3082 6749 2817 2192 2537 4311 9879 1893 3598 2039 2091 4251 2426 1763 2492 2225 2496 3204 24167 2400 8156
internal_value=5.26328e-05 -0.00091231 0.00236175 0.00152199 -0.000205496 0.0056507 0.00794109 -0.001401 -0.0021529 -0.00239973 0.000934637 0.000495598 0.00159423 0.00562285 0.00770966 0.00333803 -0.00396425 0.000664644 0.00412098 0.00500738 -0.000955893 -0.00213441 0.00123168 -0.00650506 -0.000304152 0.000559853 0.00111096 -0.00148568 0.0010375 -0.00183453 -0.00478074 -0.00272953 0.00173366 -0.00265066 0.00546012 -0.000837562 0.00579804 0.0012718 0.00354222 0.00523075 0.00439734 0.00370494 0.00443445 -0.00520784 0.000461399 0.000355516 0.000921125 -0.00189247 -0.00357446 -0.00466252 -0.000635 0.00279004 0.00617224 -0.0054112 0.00229813 -0.00530396 -0.00285242 -0.000521166 0.00423984 0.00147129 0.0061603 -0.0055965 -0.00292586 0.00178832 -0.00571286 -0.00293937 -0.000907788 0.000175645 -0.00067851 -0.00148791 -0.00216067 0.00693167 0.00190467 0.00395727 -0.00107615 0.00377772 -0.00366176 -0.0046244 0.0019243 -0.00341649 -0.000149115 -0.00360657 0.000265139 -0.00264725 0.00250592 -0.0003661 0.00482527 0.00622345 -0.00372081 0.000577053 0.0039294 0.000776088 0.00575389 -0.00384939 0.00190815 -0.00583348 0.00245027 -0.00209575 0.00101745 0.0021473 -0.000217323 0.000517809 0.00594199 -0.00242047 -0.00161852 0.00211383 0.00198982 -0.00079891 0.00370595 0.000431028 -0.00593862 -0.000108356 0.00374269 0.000776253 -0.000889335
internal_weight=4047.5 2858.88 1188.63 958.518 2329.95 230.11 148.856 1136.24 820.594 803.878 1193.71 1040.58 591.724 101.474 79.5573 596.969 528.93 490.25 465.85 356.988 448.859 291.865 156.994 57.5955 129.903 315.645 460.469 361.549 108.862 204.118 29.7811 170.573 25.4769 781.141 339.759 234.269 320.338 273.51 70.4029 50.5831 22.7373 153.123 130.162 324.812 131.119 203.108 184.796 49.1299 145.096 101.619 43.477 76.736 16.7161 316.805 33.5452 95.0644 747.626 22.9613 20.1416 33.5149 70.742 309.187 189.587 59.4198 305.607 14.277 20.6739 171.962 119.168 99.2648 88.6365 60.5283 52.7943 21.7693 19.8198 27.7074 18.3112 20.6551 81.9887 163.709 31.025 160.382 25.8776 17.2285 19.9029 32.1288 22.7915 13.8483 19.0153 56.7416 25.2471 28.4748 15.8535 153.116 17.8514 301.24 10.6283 16.3484 7.61757 23.8819 13.7253 8.94316 11.527 8.02627 9.45362 19.0212 14.6766 32.8597 15.3267 5.64822 15.0069 10.2423 27.2909 7.26605 10.4074
internal_count=2388919 1929509 459410 450414 1519884 8996 5029 1010074 822865 818710 509810 434768 217271 13473 11719 146826 409625 203798 54016 43605 217497 138943 78554 10463 77513 187209 188244 303588 10411 88220 15554 73056 11520 803083 39530 128480 37333 185357 18349 12135 15627 75042 66438 321405 92810 167008 160754 32259 61536 45131 16405 8284 4155 317426 15164 43084 785426 8604 9502 17657 22318 313249 173038 44120 310288 4732 5063 130550 86065 75066 67614 20644 44485 16891 6214 12083 6254 11424 60551 151724 27594 150681 21314 4075 10999 15278 10322 5927 14198 54475 6076 20835 7360 144020 14159 307940 7452 13662 4177 18516 12961 4395 7832 7155 6432 14403 13932 35959 6927 4504 6920 9059 28842 6661 11412
is_linear=0
shrinkage=0.02


Tree=2
num_leaves=110
num_cat=0
split_feature=169 161 46 172 140 79 131 11 88 172 62 87 163 4 166 154 126 20 171 155 33 32 165 20 140 131 52 126 172 102 162 172 67 84 2 43 90 107 69 67 72 46 169 165 46 60 159 136 64 28 35 23 41 139 3 130 133 130 143 168 20 150 129 55 46 62 87 76 107 66 67 114 87 121 106 136 169 157 97 30 137 161 101 54 61 61 93 99 74 153 159 46 125 78 107 33 28 46 139 117 66 30 109 65 43 40 168 56 109
split_gain=37.9569 51.4457 23.5107 11.7974 11.2036 5.72496 5.42854 5.28422 5.31943 4.44151 4.24532 4.03544 3.68835 3.6793 3.67155 4.73227 3.24455 3.35251 3.1947 3.05908 2.76758 5.78398 2.71082 2.62239 2.55243 2.98523 2.37322 2.33193 2.27921 5.19895 3.54886 3.08579 2.47548 2.71305 2.40784 3.06689 2.33487 2.19063 2.15595 2.21004 2.10272 2.0421 2.25392 1.95513 1.90568 1.9629 1.90485 1.83188 1.77972 1.74179 1.72592 1.70584 1.98264 1.70587 1.70517 1.6986 1.68632 1.87657 1.67695 1.6458 1.46461 1.38993 1.28751 1.28108 1.2439 1.23177 1.22732 1.06212 1.39747 1.05695 1.29475 1.03095 1.02574 1.01235 1.56911 1.01175 0.990793 0.961538 0.943034 0.919043 0.842046 0.784719 0.736203 0.683057 0.650657 0.612273 0.603809 0.586147 0.57314 0.550816 0.50538 0.409935 0.404556 0.399217 0.377085 0.345105 0.289708 0.25492 0.253515 0.159983 0.221833 0.14383 0.131652 0.126979 0.0983247 0.0485793 0.041899 0.0390634 0.0221766
threshold=-0.40479400753974909 1.5636908411979678 0.0085663311183452624 -0.4141556173563003 -0.07347561419010161 0.99282196164131176 1.188836455345154 0.64852941036224376 -0.0051831051241606465 -0.54740020632743824 1.0421686768531802 1.0000000180025095e-35 7.773489475250245 -0.0058831835631281129 1.3920919299125674 1.375948488712311 0.54738119244575512 0.071643494069576277 -0.39876013994216913 1.2431799173355105 0.41666667163372045 0.62500000000000011 -0.30783720314502711 0.15699221193790439 0.11130887642502786 0.71056196093559276 -0.23167081922292707 0.44593384861946112 -0.5170515477657317 0.13674922287464145 -0.29791262745857233 -0.46852815151214594 0.95129308104515087 0.24568965286016467 0.00056975957704707991 -0.58333334326744068 0.0018810139154084029 0.044787576422095306 0.98475387692451488 0.9523809850215913 1.0478266477584841 0.01476394943892956 -0.40041923522949213 -0.23073295503854749 0.020485885441303257 1.2346355915069582 0.47852553427219396 0.60363996028900158 1.0175438523292544 -0.76614165306091297 0.091666668653488173 -0.7206994593143462 -0.74999999999999989 -0.10876667127013205 0.0093419258482754248 1.8229932188987734 0.39154583215713507 1.389355003833771 0.4760838001966477 -0.32145269215106959 0.64772993326187145 0.5318841040134431 1.0386761426925661 0.99512198567390453 0.029053703881800178 1.0397501587867739 0.0081517109647393244 0.80326318740844738 0.01319004036486149 0.97207924723625194 0.98013255000114452 -0.027419506572186943 0.00089843483874574314 0.44729641079902654 0.60820916295051586 0.93185690045356762 -0.23799774795770642 1.384980380535126 0.18770030140876773 1.0060479640960696 -0.19546661525964734 -0.30454593896865839 0.89409753680229198 0.54153001308441173 1.0152364969253542 1.0273734927177431 0.79343935847282421 0.029356410726904873 0.98369598388671886 1.1082040667533877 0.21431161463260653 0.023160611279308799 0.58799824118614208 1.247185289859772 0.015387977939099075 0.18333333730697635 0.18735092133283618 0.017485791817307476 -0.014369934331625698 0.2789434045553208 0.94313153624534618 1.0054029822349551 0.031818509101867683 1.1354473233222964 -0.28333334624767298 0.4916666597127915 -0.35397890210151667 0.99034309387207042 0.03073963895440102
decision_type=8 10 8 10 10 10 10 2 8 8 10 8 8 8 8 10 8 8 10 10 10 10 10 8 10 10 10 10 8 10 8 8 8 10 10 10 10 10 8 10 10 8 8 10 8 10 10 10 10 8 2 10 10 10 10 10 10 10 10 10 10 8 10 10 8 10 10 10 8 10 10 10 10 10 10 10 8 8 10 10 8 10 10 10 10 10 10 10 10 10 10 10 10 10 8 10 10 10 10 10 10 8 10 10 8 2 8 10 10
left_child=5 2 10 13 6 64 14 8 12 11 22 56 20 37 15 62 28 73 58 -9 63 -22 -2 48 26 54 -10 -27 32 30 51 59 60 36 35 -32 50 61 79 -40 76 65 77 -24 81 101 71 -28 -13 -44 -34 52 -30 -53 -26 67 -8 -58 90 72 80 75 -3 -6 97 88 -38 -19 102 95 -71 -11 -31 74 -18 -4 -39 -43 85 -33 92 96 -63 -70 -83 -35 -45 -67 -15 -82 -5 -80 -7 -47 103 -60 -20 106 -76 105 108 -46 -69 -12 -66 -99 -1 -102 -101
right_child=1 4 3 18 7 16 9 19 24 46 94 23 -14 41 -16 -17 17 55 44 -21 21 -23 43 -25 25 27 47 -29 29 31 34 38 33 78 -36 -37 66 40 39 -41 -42 42 49 86 45 93 -48 -49 -50 -51 -52 53 -54 -55 -56 -57 57 -59 69 -61 -62 82 -64 -65 104 87 -68 68 83 70 -72 -73 -74 -75 98 -77 -78 -79 91 -81 89 84 -84 -85 -86 -87 -88 -89 -90 -91 -92 -93 -94 -95 -96 -97 -98 99 -100 100 107 -103 -104 -105 -106 -107 -108 -109 -110
leaf_value=-5.5151347687848369e-05 0.012715924533315799 0.0018798935138277279 0.0044917090435133752 -0.0055869190599023158 0.00087594874497485132 0.00039708002026235761 0.0020945875625008182 -0.0073977567031291505 0.00092997487698794122 -0.0015926010764008855 -0.00069073970451267867 -0.00074217141164649978 0.0090297787080200025 0.003652580888055867 0.012365837086669032 -0.0038519663834042234 0.0079362537717944711 0.0013534529630529946 0.002967607812581092 0.0015082291932436156 -0.0056148028928500252 0.0051923367070434824 -0.0030098384396222227 -0.0037717571300571393 -0.0064599544421056147 -0.0016793588420498931 -0.0088736726301323725 0.0062713097537201931 0.0032134039916098867 0.00084879390682003305 0.0079436618273303772 0.0002025171798682729 0.00048494203420975881 -0.0010707433215850716 0.010494215504038836 0.00024360239115855928 -0.0010704713396932177 0.0090115414028804804 0.0044475852838494487 -0.0019974416316389586 -0.0021229143081014498 0.0047052955822596085 0.0013321937065241193 0.007894080062677198 -0.0037845450239614195 -0.0020343824345060223 -0.0048011597660225051 -0.00033857255475661324 0.0065593309587365567 -0.0028544578663004805 0.007910786826774048 -0.00064003714048868133 -0.0032304276892118856 0.0044411284770142388 0.0019259018672671763 0.0035101758008884904 0.010110295121530988 0.0030356795382655956 0.0011044619058111426 -0.00062969550280871935 0.00049188641313172184 -0.0053713426787244502 0.010283002176453258 0.0077343275304280288 -8.216291963606728e-05 0.0020891743785967139 0.0035856036246699691 -0.0006303770329523018 -0.0070472719025402343 0.0060984347817890716 -0.0006725343488191034 0.005732143972686554 0.0060459379824095594 -0.0011617933542216663 0.0014003985370691302 -0.0018424648188961168 3.6124055410488259e-05 -0.00081438505427738309 -0.00010515561602294571 -0.0039312319279954291 0.0093790074852054921 -0.00015433802971827148 0.0013882805431993722 0.00022781804055217069 -0.0036471517200167914 0.0040906176383128509 0.0002477319703047086 -0.0018051654830735114 -0.00043014491754754996 0.0032058176284976586 0.00084804419786661616 -0.0043324411371886331 0.0047370193275774021 0.0012759515164925382 -0.00333785380652209 -0.0029878732889644798 -0.00083621837401357717 -0.00041480018398294032 -0.0024832767311425011 -0.00019548755367627363 -0.00034819480264967553 -0.0056518100892328895 0.0025196333118129252 0.0021214427559271263 -0.0047540279795977919 0.0015365760327935927 0.0026958919373837064 0.0014080793058787477 -0.0031037122665547173
leaf_weight=2.1051441533491015 36.046852688392391 17.284436522488249 14.767228426353542 13.71304685114592 19.98024109355174 15.747654313192472 31.489862432295922 33.596512049058219 27.857623360177968 8.064146359858567 5.0289659232657833 20.291644610566436 40.840845781815005 36.069939390057698 66.446762631647289 14.430426284467101 18.49848428955011 8.5176735257555247 5.6169391507573883 19.377035015873844 32.991083050583256 26.868044730857946 8.5681401943729707 22.361969558580313 13.900923233915821 16.18840412874124 22.081221042753896 38.085449178353883 26.827058270282578 24.951653122145217 30.951953308685916 28.698596485424787 16.45738365908619 10.305791649298046 48.275827962730546 43.14414943268639 32.580128897068789 21.505693110870197 37.018902980722487 30.83475057745818 6.8489542318857266 15.891586737416217 36.88841853334452 7.2770325441961194 107.09924703916477 30.591906420217128 23.171524382792995 15.849983648455234 20.907888772635488 597.6104579467501 70.014364494476467 28.148889723379398 29.696044066542527 173.79541296020034 10.232060103793627 6.9063092738797414 65.516797289834358 33.029325608265935 6.3822588195762391 29.262885250907857 14.10931175079895 13.607587795355359 17.853078797750641 24.946531792433234 2.2529335314466152 10.259743762639117 44.28968733662623 3.4048903125803909 34.15587126481114 16.243894537532469 16.695516168489121 6.5788653386698561 52.354019781283569 7.4816362283308981 3.7489751399552924 9.769552402518455 5.9256854065170073 19.790834820159944 16.31319989121403 65.951940925151575 85.487127932021394 27.327890681917779 4.1427388139127279 5.1513911780493791 104.65496291653835 11.420538951089837 6.3074653354415204 71.810514748794958 16.853800508397399 21.012905177398352 3.1685830821515983 12.590060926653676 16.218751543579856 14.419093337084631 5.3556629400118263 12.976745328429386 9.6556385347794258 2.601430207432716 4.6674045466643266 2.6580957305559405 3.309028510178905 722.09600376774324 3.7905766057374422 4.1875928229710553 32.612344089240651 4.6153561627725139 6.3779017620254326 2.115548937668791 5.2913151351094712
leaf_count=1874 2894 2564 8193 8994 2728 2545 1774 2903 3613 3354 2491 2006 1661 26536 4100 2058 3862 3372 3757 2771 3752 3721 967 2616 3209 2554 4308 7985 2788 5295 5887 29736 2516 1937 4784 6043 4213 6390 11874 13155 1816 5580 25297 388 126082 32776 2484 2456 2170 549443 9797 3401 3147 17331 3591 1581 4059 2691 5706 3595 3948 8246 2457 2007 2745 5295 3002 2514 13612 5472 5571 3310 5781 1668 1879 8132 3482 9380 3088 68167 9056 19383 2203 2335 124850 2286 4047 50272 11132 4567 2004 1965 1542 15026 3001 11185 5517 2905 2686 2929 3625 863554 1901 2221 39833 4913 6735 1666 3862
internal_value=9.83102e-05 -0.00119387 -0.00278526 -0.00320961 0.00349394 0.00308682 0.00597366 0.000882629 0.00196649 0.00391952 0.00771434 0.00510427 0.00453441 -0.00146525 0.00943484 0.00408945 0.00342326 -7.83528e-05 -0.00459373 -0.00441787 0.00214829 -0.000715084 0.00982511 0.000791066 -0.000752801 0.00160785 -0.00340715 0.00400752 0.00375262 0.0029557 0.00443088 0.000783809 0.00504959 0.00339388 0.00717534 0.00402224 0.00458567 0.00249948 -0.000946018 0.0016384 0.00561697 -0.00186831 -0.00231463 0.0026293 -0.00487296 -0.00523889 -0.00194498 -0.00612191 0.00352061 -0.00259416 0.00669426 0.00291263 -0.000148745 0.00373609 -0.00338189 -0.00273921 0.00700552 0.00823724 -0.000376109 0.00327645 0.00701998 -0.000618659 0.00748169 0.00539899 -0.00243957 0.000354275 0.00171614 -0.00394287 -0.00498081 0.0014693 0.00330915 0.00268894 0.00465783 0.00425015 0.00566173 0.00216646 0.00760031 0.00213575 -0.000573254 -0.00277827 0.00760723 -0.00250558 -0.00386195 -0.006241 -0.00298575 0.00207654 0.00595417 -0.00114429 0.00249068 0.00854074 -0.00451295 -0.00258685 0.0032031 -0.000934756 -0.00128348 -0.00172206 0.00118344 0.000593931 -0.000932278 -0.000662889 -0.00160472 -0.0054586 0.0015293 0.00102605 -0.00453774 0.0010008 0.00235272 0.000805566 -0.00278195
internal_weight=3912.1 2735.38 2045.16 1972.38 690.223 1176.72 347.427 342.796 289.822 231.412 72.7717 193.597 145.627 881.743 116.015 49.5679 1112.78 96.3232 1090.64 52.9735 104.786 59.8591 58.1995 63.5615 144.196 78.4068 65.7888 54.2739 1016.46 649.912 380.839 269.073 366.547 213.971 122.372 74.0961 163.342 76.5674 162.504 67.8537 34.2803 805.175 670.181 22.1526 1021.46 874.206 37.8145 37.9312 41.1995 634.499 86.4717 258.467 56.5231 201.944 24.133 61.9267 130.036 98.5461 69.18 106.569 152.576 42.2871 35.1375 44.9268 63.9391 134.994 76.8698 55.0204 46.5027 52.2984 32.9394 14.643 77.3057 34.3965 26.9149 24.5368 27.4314 35.6824 50.6296 94.6505 138.466 147.255 17.7503 39.3073 131.983 21.7263 13.5845 82.0703 52.9237 106.5 16.8816 28.9033 31.9664 45.011 14.5722 19.359 15.2726 29.0738 8.41638 20.5908 13.374 829.195 7.19547 9.21656 34.8653 7.21679 8.48305 5.42458 7.94941
internal_count=2388128 2050185 1967283 1951274 82902 337943 35643 47259 41585 24464 16009 15316 13869 721397 11179 7079 266856 35410 1229877 5674 12208 7473 8296 6792 27716 17339 10377 10539 231446 180984 43381 137603 50462 28804 16714 11930 19528 38462 122932 25029 11688 682935 589700 5402 1190945 1037438 9148 6764 4176 574740 12313 26667 5935 20732 6800 25315 8524 6750 38932 14671 21658 26774 5021 4735 71087 93235 7215 23734 20362 27934 11043 6664 11076 10095 8427 16325 9872 14960 9276 97903 17710 153507 10449 15947 144233 4223 4435 55567 37668 13623 10998 5053 4087 47802 7713 16891 9274 28509 4565 19900 12082 989636 4415 4712 42578 7818 8609 5291 6791
is_linear=0
shrinkage=0.02


Tree=3
num_leaves=76
num_cat=0
split_feature=46 160 163 58 1 51 76 163 102 168 40 134 46 164 160 46 61 129 104 58 64 81 56 120 165 21 88 102 52 100 2 133 42 165 165 47 147 61 138 168 163 37 70 75 152 108 46 46 107 130 163 46 67 153 151 58 153 57 97 164 101 119 26 119 50 46 21 132 127 59 155 20 135 164 127
split_gain=90.5121 56.0045 94.1278 27.9083 24.8671 8.68194 6.16795 5.78103 5.66886 12.0639 6.70278 5.18878 5.07798 4.34846 4.26922 3.79007 3.76469 3.7621 4.99657 3.62296 3.53235 3.38748 3.28121 3.01247 2.69714 2.54876 2.39586 2.26258 2.09526 2.84729 2.07053 3.18719 1.91292 1.84704 1.7572 1.98667 1.75305 1.68274 1.67218 1.54412 1.72961 1.48345 1.59929 1.37405 1.50274 1.33604 1.20491 0.998539 0.976557 0.852844 0.835039 0.825591 0.810213 0.781762 1.27921 0.994773 0.68476 0.672038 0.628514 0.625689 0.537657 0.498195 0.422676 0.314145 0.304444 0.279922 0.270222 0.242753 0.225525 0.220419 0.21693 0.209705 0.154255 0.103547 0.0915919
threshold=0.0085663311183452624 2.2979552745819096 -0.28234884142875666 0.9684884548187257 0.0092746359296143072 0.0083333468064665812 0.93901067972183239 -0.27380535006523127 0.13998550176620486 -0.35018169879913325 0.62500000000000011 0.23161858320236209 0.027272762730717662 -0.18373194336891172 7.6683535575866708 0.028880939818918708 1.024273753166199 1.1451587080955508 0.26567360758781439 1.0901545286178591 1.0043512582778933 1.347693979740143 1.0465948581695559 0.10869533568620683 6.0140087604522714 0.4674136638641358 -0.10415285825729369 0.85500949621200573 -0.14201103150844571 0.701675444841385 0.0022595028858631854 0.70018073916435253 0.22500000149011615 2.8223694562911992 7.1324660778045663 0.003257358213886619 0.49037508666515356 1.0152364969253542 -0.041192146018147462 -0.24095694720745084 -0.21454948931932447 0.12500000372529033 0.91073471307754528 1.0157262086868288 1.0113446116447451 0.037104828283190734 0.01476394943892956 0.018773455172777179 0.016985544003546241 1.281921982765198 -0.31047439575195307 0.019097027368843559 0.9523809850215913 1.0976379513740542 0.4783728569746018 1.0570105910301211 0.94907131791114818 1.00292444229126 0.33751845359802252 -1.0529600381851194 0.018558008596301082 0.69659546017646801 0.2106064781546593 0.60720604658126842 0.77287802100181591 0.015546088106930258 0.53166168928146373 1.1933555006980898 1.0577657222747805 0.98926842212677013 0.90307083725929271 -0.0861779749393463 0.26392678916454321 -1.2147406935691831 1.3216440081596377
decision_type=8 10 8 10 10 8 10 8 10 10 2 8 8 8 10 10 10 10 10 8 8 8 10 10 8 8 10 10 10 10 8 10 10 10 10 8 8 10 10 10 8 10 10 10 10 10 8 10 8 10 10 10 10 8 10 10 8 10 10 10 8 10 10 10 10 10 10 10 10 10 10 8 8 8 8
left_child=4 2 3 12 17 11 33 53 15 47 25 -3 51 38 30 41 -12 -1 49 26 -7 24 57 -20 37 -11 -17 -25 29 -16 31 -15 -26 43 35 -22 -21 -9 -13 64 -41 58 -43 46 59 -37 69 52 -35 56 -49 66 -10 54 65 -56 -19 67 -5 -45 -55 -62 74 -48 -23 -8 68 -14 -2 -4 -64 -51 -68 -46 -53
right_child=1 5 6 8 -6 20 7 21 9 10 16 13 22 14 28 19 -18 18 23 36 34 39 -24 27 32 -27 -28 -29 -30 -31 -32 -33 -34 48 -36 45 -38 -39 -40 40 -42 42 -44 44 73 -47 63 50 -50 71 -52 62 -54 60 55 -57 -58 -59 -60 -61 61 -63 70 -65 -66 -67 72 -69 -70 -71 -72 -73 -74 -75 -76
leaf_value=0.00034705217953639485 -0.00037558070174769162 -0.00092649953947248926 0.0014084893339269989 -0.00021779491954443468 0.016640174355574921 0.0052754296111896951 0.00083284107645993242 -0.0025672922782070053 0.0027475354427362255 0.0014083317302968819 0.0072930508164000384 -0.0043767994743795658 -0.0081523445733539916 0.0043773874033403862 0.012733770305121822 -0.00062565103956208263 0.002852540629798951 0.0044239685571549649 0.0029159500370982993 -0.00023393735332234638 0.0017854091140360312 -0.0042908752979670091 0.0024854483929398737 0.0061333015723401422 -0.0032557565838948668 -0.003015352563716751 0.0069136530359063539 0.015815275490391009 0.0042551786492161852 0.0053422093696407057 0.0087258772730235395 -0.0032996744095147054 0.0038496881176719477 0.0042801736139515779 0.002182654351732038 -0.0086999307999258129 0.0044118231823535286 -0.006095869604444938 0.0028771066456388813 0.0045995651752476201 -0.0019722458988483556 -0.0033280352640204466 0.001553417024762293 0.005075510729076145 7.5123144842972887e-06 -0.00044778517883754582 -0.0079496568748072399 -0.0016615846180689183 -0.0028590639468356323 0.00015127354209383979 -0.0055230775920215537 0.0018437507810122368 -0.0025386175237864122 0.0016444841812218141 0.0033241930505470449 -0.0012292750532274114 -0.0010957225664268743 0.00037943774000936677 0.0060092899526668266 -0.0014175335963291461 -0.0040551548058359111 0.0013403706154650147 0.00074747016233914427 -0.0014258104326579761 0.00077082204168061794 -0.0035557021363618138 0.0013532044143568364 -0.00044674044429859471 0.0040912775980203597 -0.0020670125771329855 -0.003259786627485143 -0.0040867733740747713 -0.0015997954916429566 -0.0047591416944192128 -0.00064049544458141512
leaf_weight=50.910314358043252 3.7601234745234278 34.971255996264517 2.7191515083832192 7.4534995442372773 129.70536408983753 16.796688058995642 3.1906369362550349 81.886217554405448 12.62766796196229 212.19233401519887 123.99748372414615 11.628395767445907 126.75413053433294 124.05908310515224 101.76144455937902 16.272638983442448 234.56086380586203 9.6267971555935237 36.756711405090755 63.877896488862461 9.7450420364475558 27.000130714804985 8.9652974273922137 46.710339521974674 27.497729903989239 58.178544533002423 265.22880004344916 23.305754140339559 45.119128568301676 53.462322644103551 34.784794851308106 18.209037490843912 15.530969096318584 3.8254845815827112 12.163222824092371 24.497828603460221 54.170296512034838 605.60015196719905 20.85042046388844 21.639729870163137 24.07846623986552 29.25091333623277 74.951289753313176 3.7416044990386581 1.8764675151032859 11.625547157163963 460.40735197339382 47.629535468542599 7.3357940274290749 5.4449364376196172 69.451152895344421 5.8818492681602921 13.79601219575852 4.4258923792949636 47.660662987123942 22.377784227326629 10.759122609189943 3.0060255926800883 19.286690409324365 4.4880222501233202 29.676631956885103 3.2632791979413005 2.4937096749199581 7.8687129904283202 2.3136837015190386 18.685294189097476 3.1715555998380269 2.8659163437987436 11.147536282413055 11.636066122824557 27.700490060407901 7.3633838725509104 5.8503150891920095 30.23016050523438 3.1886025248968517
leaf_count=3897 3302 3458 1908 2013 1699 3454 1918 85711 9427 89803 29524 2104 145519 15824 4384 3369 83542 1787 1070 20895 2527 27102 3525 6025 20379 45649 38209 936 3616 2024 4991 2910 6357 1584 2041 5017 16942 704966 3517 5250 21125 10876 31461 1875 1424 3886 551930 37555 6068 2085 76640 4306 11099 3654 28994 16078 2446 1809 5197 4763 28183 2365 1799 7719 1091 13971 2441 2856 6642 10670 24501 2766 4792 35513 2177
internal_value=0.000136552 -0.000807008 -0.0018678 0.00163912 0.0101403 0.00518972 -0.00545399 -0.00438366 0.00272304 0.00159681 0.00278937 0.00622998 -0.00506293 0.00684811 0.00743748 0.00430303 0.00454438 0.00511506 0.00671054 0.0052551 -0.000999909 -0.00500678 -0.00704883 0.00865699 -0.00541827 0.000382843 0.00647132 0.0109298 0.00949267 0.0106654 0.00472879 0.00324262 -0.000448761 -0.00721229 -0.0033247 -0.00491439 0.00207598 -0.00571842 -0.000138968 -0.000834432 0.00140561 0.00123119 1.17017e-05 -0.00738136 -0.00282427 -0.00671703 -0.00769716 -0.00347098 0.000454194 -0.000105146 -0.00420655 -0.000258258 4.83572e-05 -0.000420237 0.0005972 0.00189751 0.00210894 -0.00782241 0.00468672 0.00269936 -0.00252068 -0.00333296 -0.00188212 -0.00787214 -0.00379692 -0.00285515 0.00217565 -0.00802617 0.00326616 -0.00110068 -0.00282521 -0.00300872 -0.000396042 -0.00454493 0.00109252
internal_weight=3816.92 3496.34 2976.67 1507.71 320.583 519.674 1468.96 934.827 1302.93 772.434 628.929 444.846 204.786 409.875 377.396 530.492 358.558 190.877 139.967 399.55 74.8283 805.547 141.591 106.773 730.515 270.371 281.501 70.0161 200.343 155.224 177.053 142.268 43.0287 534.129 58.0316 45.8684 118.048 687.486 32.4788 75.032 45.7182 130.942 104.202 522.968 40.3363 36.1234 482.631 143.504 11.1613 33.1942 117.081 63.1942 26.4237 129.28 91.9144 70.0384 20.3859 132.626 26.7402 8.22963 37.3658 32.9399 39.2647 468.276 29.3138 21.8759 23.9295 129.62 14.9077 14.3552 30.1942 12.8083 9.02187 32.1066 9.07045
internal_count=2388932 2366221 2306468 715870 22711 59753 1590598 967144 512201 383239 248518 42828 203669 39370 33749 128962 113066 21012 17115 79415 16925 871981 153709 8031 817413 135452 41578 6961 10024 6408 23725 18734 26736 623454 13471 11430 37837 790677 5621 54568 26375 49547 42337 615802 43575 8903 572227 134721 7652 9084 114195 49960 20526 95163 60961 45072 4233 150184 7210 6638 34202 30548 32783 559649 28193 15889 17177 148375 9944 12578 26300 4851 7233 36937 6483
is_linear=0
shrinkage=0.02


Tree=4
num_leaves=67
num_cat=0
split_feature=46 169 160 46 32 79 81 52 150 160 106 107 98 170 125 40 133 160 159 154 170 73 46 108 30 77 27 30 23 6 72 152 46 21 64 58 140 169 157 98 46 91 152 42 46 167 126 69 94 162 69 64 170 167 90 123 46 21 162 27 66 96 171 167 98 64
split_gain=204.186 83.2731 142.43 25.0719 24.5329 15.4576 14.091 6.62769 5.27739 4.98447 4.41258 3.6244 3.06695 3.11849 3.41566 2.83798 2.83779 2.68684 2.76245 2.38527 2.28317 2.1724 2.053 1.97425 2.1946 1.72499 1.55902 2.0154 1.61043 1.53242 1.50728 1.44743 1.41426 1.33414 1.29138 1.22592 1.2217 1.1956 1.00162 1.12088 0.953518 0.920801 0.884871 0.81596 0.807295 0.794523 0.673765 0.625735 0.625639 0.610063 0.535903 0.525503 0.522466 0.472919 0.472079 0.339054 0.302601 0.295322 0.26972 0.222583 0.21597 0.215736 0.358286 0.175601 0.171372 0.146992
threshold=1.0000000180025095e-35 -0.40130393207073206 1.8632636666297915 0.0085663311183452624 0.77500000596046459 0.99282196164131176 1.347693979740143 -0.38485378026962275 0.41579538583755499 7.6683535575866708 0.59577602148056041 0.044787576422095306 0.63094186782836925 -0.39092433452606196 0.68133968114852916 0.10833333432674409 0.45308195054531103 7.7914881706237802 1.2782155871391299 1.3968909978866579 -0.18441201746463773 0.95101851224899303 0.015344536397606136 0.051830504089593894 1.0113121867179873 1.0058621168136599 0.30419243872165685 1.0354220271110537 -0.0313676930963993 0.16025641560554507 1.0387469530105593 1.1348762512207033 0.021829179488122467 0.42406116425991064 1.0696519017219546 0.9777626395225526 0.15005230903625491 -0.39947646856307978 1.1855391263961794 0.49827463924884802 0.016976452432572845 0.052397791296243675 1.0130069851875307 0.67499998211860668 0.038108270615339286 -0.28079284727573389 0.55112069845199596 0.95716744661331188 1.0216987133026125 -0.30471584200859064 0.99433955550193798 1.0167601704597475 -0.40360273420810694 -0.36900505423545832 -0.012677663471549748 0.54316419363021862 0.030983417294919494 0.0061598492320626983 -0.27057020366191858 0.38673925399780279 0.96503528952598583 1.0285729169845583 -0.43635210394859308 -0.34246513247489924 0.04578098468482495 1.0068655014038088
decision_type=8 8 10 8 10 10 10 8 8 10 10 8 8 8 10 2 10 10 10 10 8 8 8 10 10 10 8 10 8 2 10 8 10 10 10 10 10 8 8 8 8 10 10 10 10 10 10 10 10 8 10 10 8 8 8 10 10 10 10 10 10 10 10 10 10 10
left_child=4 5 3 19 -1 40 22 9 17 23 12 55 13 15 32 34 -11 18 31 25 30 -17 35 24 -4 -3 27 41 44 38 -13 -9 -15 46 -7 45 -26 53 48 -40 63 -14 -30 -31 -28 -5 52 -39 -10 -37 61 -16 56 -24 -22 64 -12 -48 -27 -54 -42 62 -35 -2 -8 -65
right_child=1 2 7 6 -6 10 11 8 29 16 33 20 26 14 51 21 -18 -19 -20 -21 54 -23 37 -25 36 58 28 -29 42 43 -32 -33 -34 50 -36 49 -38 47 39 -41 60 -43 -44 -45 -46 -47 57 -49 -50 -51 -52 -53 59 -55 -56 -57 -58 -59 -60 -61 -62 -63 -64 65 -66 -67
leaf_value=0.020005012961520286 -0.0018779119543760523 0.0072437884356984896 -0.0012120210794265179 0.0025367953080789123 0.0086212476969903581 -0.0014330195228415324 -9.4151999841582561e-05 0.0043306640718571189 -0.001398521299202356 0.0056319450383851546 0.0046129574622411473 0.0047334522963645041 0.0050705023293310071 0.0019188272552076481 0.006749276382423423 0.0010611251240372683 0.011387900051633888 -0.00093340383366871855 0.0091129379341291002 -0.0016879084893775093 0.001047725532219515 0.0057993381723192728 0.0019107298915897861 -0.0029483873538786137 0.006352733668584889 0.0016668643249943488 0.0032788961768972441 -0.0030121018004388034 -0.0036936838850078536 -0.00083290678833920274 -0.0017781892038733239 -0.0014988138903536427 -0.0031639241948460102 -3.4669107302642401e-05 0.0031639905320654874 -0.00033941148767963129 0.00011612819074117205 -0.0091998657547442859 -0.00055755048092333444 -0.0052052234909628747 -0.0071043418151401118 -0.00065597023700800911 0.00053860764918677278 0.0055330854671593243 -0.00098666227245600602 -0.0028686476399926875 0.0010575993490737768 -0.0074921092408011206 0.0033915651617173106 -0.0060743924834757417 0.00085816955337353524 0.00046462543489532389 -0.0020437515578926673 -0.0031500815394046268 -0.0046926339409195305 0.00062645926979990475 0.00010309120763848423 -0.0032209146753276051 -0.0018530427078469762 0.0013531762105963591 3.2404124297448104e-05 0.0002483390941068821 -0.0058702393640418359 0.0022770469846827394 -0.0056185773730138815 -0.00087258487333747594
leaf_weight=161.36395963438554 3.6336600436770823 44.546932263474446 23.14938908838667 10.252174272987761 184.77801438677125 34.960766777425306 2.7236183002532917 38.987227244535461 12.926327766006581 120.7758287533652 16.543057286238767 51.413547755422769 80.287290630105417 26.964660892845131 24.519883367000148 47.236511365350452 83.948429980955552 24.240452687838115 50.666873439389747 19.084177623590222 3.4648338245460764 513.0169404529297 2.5379091400827747 12.833361044089541 62.842944514879491 6.6979362899728576 54.114082794869319 9.9161450557876361 34.14904604939511 9.3741081424814201 12.725642363628138 19.869630995235639 47.461439299921039 5.075503274711088 46.923434721858939 9.2587341880425793 15.638447158737106 518.64310304820538 46.326053242490161 32.110219050664455 53.290576377796242 10.394828751217572 31.732746209425386 10.927866638696285 19.220969986083219 13.802131462143732 3.9640841186628668 780.59266888682032 12.911750227474839 101.77474049114971 5.5805904217413618 8.1387091533688345 7.7234039052564167 18.661783297677179 13.148012151359582 2.0159995621652333 8.2717756355996226 8.5024367249134212 8.3516270263935422 4.6954410453618038 1.6497479930112593 2.444580148177919 18.568422455995464 3.9387502666795609 36.008194911759347 3.2792720940487925
leaf_count=2604 3372 3929 2693 6768 2378 15117 2394 7195 3233 3867 6710 16431 19127 10623 4902 14039 2398 1867 3985 3913 3578 93193 1121 3226 9079 1118 16828 2797 11831 2684 8122 2014 27295 4106 7147 6487 4055 656799 11833 8387 68578 2319 10151 2751 4951 16255 2808 1011058 3067 129549 2083 3309 3479 15742 13951 1587 2902 7873 3465 2450 1759 1781 15907 1849 36870 2780
internal_value=-6.30608e-05 -0.00158083 -0.00381785 -0.00679108 0.0143408 0.00281105 -0.00734191 0.00467654 0.00217252 0.00657565 0.0034031 -0.000733089 0.00376896 0.00439937 0.00111489 0.0049216 0.00841264 0.0047875 0.00602585 0.00383242 0.00171643 0.00542546 -0.00788482 0.00287818 0.00381213 0.00558869 0.00170218 0.00347595 0.000273408 -0.000782419 0.00337592 0.00243081 -0.00131328 -0.000969716 0.00125893 -0.00484124 0.00526358 -0.00815747 -0.00179353 -0.00283365 -0.00599946 0.00441413 -0.00185282 0.00328886 0.00217666 -0.000496393 0.001058 -0.00823889 0.00127361 -0.00566372 -0.00364214 0.00565916 0.00228627 -0.002126 -0.00355158 -0.0049691 0.00357105 -0.00199525 -0.000246438 -0.000728704 -0.00691805 -0.00457585 -0.00500019 -0.000261414 -0.00532914 0.0011704
internal_weight=3715.57 3369.43 2233.23 1655.7 346.142 1136.2 1577.02 577.529 258.341 319.188 1070.41 121.5 989.037 749.222 107.085 642.138 204.724 133.764 109.524 78.6807 80.752 560.253 1455.52 114.464 101.631 59.5965 239.815 100.598 139.217 124.576 64.1392 58.8569 74.4261 81.3693 81.8842 135.088 78.4814 1320.44 104.274 78.4363 65.792 90.6821 65.8818 20.302 73.3351 24.0543 49.7002 1299.24 25.8381 111.033 31.6691 32.6586 37.2337 21.1997 16.6128 40.7478 24.8148 12.4665 15.0496 12.4188 54.9403 26.0885 23.6439 10.8517 38.7318 7.21802
internal_count=2388519 2383537 2011471 1939137 4982 372066 1926712 72334 47016 25318 293728 82933 243629 175625 46129 129496 6265 15061 13194 12425 42082 107232 1843779 19053 15827 8512 68004 24243 43761 31955 24553 9209 37918 50099 22264 159059 13134 1684720 26520 20220 78338 21446 21982 5435 21779 23023 26222 1667857 6300 136036 23877 8211 15541 16863 17529 40851 9612 10681 4583 5929 70337 21794 20013 8001 39264 4629
is_linear=0
shrinkage=0.02


Tree=5
num_leaves=83
num_cat=0
split_feature=46 169 160 10 80 127 57 96 158 75 168 23 171 90 172 72 170 170 170 155 155 63 107 162 40 154 87 153 167 128 26 127 77 72 117 170 90 69 69 75 39 2 40 42 151 131 75 106 23 61 61 27 137 141 40 69 90 143 107 158 49 80 57 68 46 2 46 118 61 27 46 94 37 72 43 90 55 169 153 132 46 94
split_gain=200.184 87.2153 144.133 54.3059 25.2119 16.3405 12.2042 10.904 10.1453 8.17768 7.10723 6.12058 5.54667 5.16504 4.66917 16.1649 6.40767 3.71016 4.65911 3.68514 3.30618 3.58947 3.00149 2.79883 2.23712 2.1674 2.12432 1.81536 2.0769 1.82411 1.78815 1.70976 1.69787 1.56212 1.53577 1.50702 1.46107 1.44038 1.43153 1.33345 1.33101 1.21134 1.13901 0.895236 0.857859 0.796347 0.768523 0.697874 0.632777 0.60911 0.573157 0.539588 0.532829 0.529502 0.487834 0.482134 0.481192 0.480876 0.464314 0.460081 0.459714 0.408988 0.373567 0.370625 0.357664 0.354818 0.309341 0.306883 0.287922 0.281905 0.281774 0.314751 0.267475 0.253256 0.240305 0.205099 0.138127 0.107439 0.105269 0.074861 0.0570488 0.0411594
threshold=0.0085663311183452624 -0.40479400753974909 1.8632636666297915 1.0000000180025095e-35 1.0084262490272524 3.036123633384705 0.96824511885643016 1.3693825006484988 0.186030387878418 1.0052022337913515 6.9354982376098642 -0.45006772875785822 -0.40059003233909601 0.0018810139154084029 -0.45925790071487421 1.0007392168045046 -0.39874526858329767 6.7057058811187753 0.5515737533569337 0.96111461520195018 1.4476540088653567 1.0400931239128115 0.044787576422095306 -0.29791262745857233 0.69166666269302379 1.3968909978866579 0.0040514813736081132 1.2863294482231142 -0.27810092270374293 1.9321837425231936 0.45404116809368139 0.70721480250358593 1.0394884943962099 1.0183519721031191 0.66666647791862499 4.6521782875061044 -0.0005397142085712402 0.94959527254104625 0.95673081278800975 0.98469221591949474 0.90000000596046459 -0.0018194732838310299 0.55833333730697643 -0.72499999403953541 0.49855549633502966 1.3645034432411196 1.053549110889435 0.45554430782794958 -0.62050315737724293 1.1293577551841738 1.2520223259925845 -0.2240793779492378 1.0000000180025095e-35 -0.0093800462782382948 0.62500000000000011 0.99110358953475963 0.003873366280458868 0.49540431797504431 0.056497778743505485 0.36291474103927618 -0.016095620580017563 1.0187648534774782 1.0183109641075136 0.96881574392318737 0.023456705734133724 -0.022854816168546673 0.017144645564258102 0.43891043961048132 1.0084537863731386 0.20200438052415851 0.014569442719221117 1.4086279869079592 0.12500000372529033 0.97971299290657055 0.15000000596046451 -0.0029971695039421316 0.99606925249099743 -0.43615207076072687 1.5020299553871157 0.50840047001838695 0.01476394943892956 0.99436455965042125
decision_type=8 8 10 2 10 10 10 10 10 10 8 8 8 10 10 10 8 8 10 10 10 10 10 10 2 10 10 8 8 10 10 10 10 10 10 10 10 10 10 10 10 10 2 10 10 10 10 10 10 10 10 8 10 10 2 10 8 10 10 10 10 10 10 8 10 10 8 10 8 10 8 10 10 8 10 8 10 10 10 10 8 8
left_child=3 6 7 -1 5 11 24 12 46 36 25 -5 33 17 27 40 23 18 52 -20 21 -13 76 32 51 35 44 28 29 31 -22 -8 -17 59 -25 56 -6 70 75 54 50 -40 74 -29 -15 68 65 48 -45 64 55 -2 -12 -35 -28 -16 57 -4 -24 60 -3 -31 -49 79 -42 -9 -53 -47 -26 -44 81 -72 -67 -61 -30 -37 -10 -70 -18 -27 -39 -14
right_child=1 2 10 4 9 -7 14 8 22 -11 13 20 37 26 15 16 78 -19 19 -21 30 -23 58 34 45 63 39 43 42 61 -32 -33 -34 53 -36 38 -38 80 41 -41 49 -43 69 47 -46 67 -48 62 -50 -51 -52 66 -54 -55 -56 -57 -58 -59 -60 73 -62 -63 -64 -65 -66 72 -68 -69 77 -71 71 -73 -74 -75 -76 -77 -78 -79 -80 -81 -82 -83
leaf_value=0.019523652431925023 0.0007123109390980714 0.00010237511289462043 0.00080594068520553771 -0.0032637099128878634 -0.0031740951852158522 0.013005907022928361 0.0011393044153012275 0.00030154409649239627 -0.0038635265032600868 -0.015714827420950005 0.0021372084502300115 0.0095350881573165909 0.00038726975672359951 0.00057149970934236116 -0.0058003230785616637 -0.0015395667973023572 -0.0048572405398678506 0.0014574051100394515 0.0014732900411596028 0.0095015705562092774 -0.0017255603618656565 0.0015439104018803247 0.0016916827797893697 0.003833239552164486 0.00079144003689287051 -0.0061611099763039445 -0.0015470424434508656 -0.002677481446485227 -0.0041284655908659287 -0.0016873536085665816 0.0042364350140474336 0.0064016320703713346 0.0038481459369332336 0.0047325339111485435 0.0095641166149597976 0.00067816057133792502 0.0044028035728411446 -0.0052459360808721532 -0.00033407528072171701 -0.0051926670167290459 0.0012298784633856289 0.0066471901170272575 0.0040317938029772191 -0.00063897223222693855 0.005455872434739442 -0.00064063355731675616 0.0011803847052169068 -0.003006787190113781 0.0043268409279413143 0.0032327413816322869 0.000889918964324159 -0.00046264918415060219 -0.0020701018313384542 -0.00072700903753912679 0.0037303120089554999 0.00018222729913256342 0.0015836460500972991 -0.004087080039500657 0.0073506807501605535 0.0016596194123374237 -0.0052390410876646852 0.0021179153983241555 0.0016584546324817373 -5.716777438236161e-05 -0.0030909150334561724 -0.00053345432486968545 -0.007748409842020223 0.0041942571476755444 0.00012105080914618025 0.00019977547703749248 -0.0096209777001648455 -0.00072178928933871057 -0.007247729522808233 -0.0017936033464971747 0.00034239793257873373 -0.003126706481496802 0.00029613102683051154 -0.0038568297627605843 -8.5015474222178194e-05 -0.00096857287199529954 -0.0076622342077879522 -0.0015349076831429392
leaf_weight=184.47584678034764 1.7845406403357627 7.2449454310262764 7.563548943144272 31.505666013254086 10.550733266340103 142.23582597653149 31.784226111325552 1.955965612840372 8.5836982228211109 15.225938369228968 14.377441908232869 79.962128129933262 1.9648539822665037 28.630811647017254 85.973420583075495 21.801689727741177 20.786652833136035 47.637582552997628 29.832276996632572 225.41873354854761 30.82646036753431 35.878283216996351 15.32888625730993 54.83136023892439 5.072739991504938 10.595738898729911 4.7861344807315636 9.1157460821268597 7.6958205765404255 12.220465444755975 31.808219961909344 341.51972307807591 152.27015552845842 6.8033705987909334 61.989525417855475 4.2779020532616414 10.512939117936185 101.1811713539937 12.086235726470475 17.016597437293967 5.3178575081110528 29.191670266372967 13.351148261630444 10.249573544424491 25.435570377856493 4.2481579056766332 2.33094625303056 6.8239378921716689 35.361376915505389 5.7024709278339278 3.2562730859208378 3.8327436076069707 13.800685286114456 8.3404794362577359 6.6137958211475052 5.0747944273171006 7.325647075049349 15.674912213871719 31.978056850231951 6.6215017687936752 29.645224302090359 13.228563722630495 3.4262682171247434 6.7589399107673662 10.952187106857307 4.1749373746570191 39.596387546305778 6.8608223617484327 2.4697698276431792 13.075687554126487 408.93005964516487 3.2922526136680963 62.240339881318505 7.4339795354753742 4.6472263479954563 5.4884248697489948 2.2379645863547912 9.3181381065805855 2.3508343771682112 5.7664768714312222 829.15422956529073 2.0199457810376771
leaf_count=825 1234 4970 2323 2516 1187 1144 4353 1492 9314 1926 2404 3988 1520 3128 89422 7303 19026 1847 2022 15492 2210 3794 2217 6257 3722 3721 3131 2078 3064 4200 2091 48067 21904 2092 6674 1576 2883 131932 3107 3748 3673 4541 2408 1807 2928 2627 2434 5335 7351 1738 996 3589 2308 2961 2193 2942 3049 4141 4780 3716 24335 3355 675 1712 11321 4714 49297 2646 2148 2740 544934 2945 71938 5411 3122 3008 2235 9087 1717 2101 1136122 2546
internal_value=7.03579e-05 -0.00196656 -0.00431727 0.0108157 0.00629467 0.00795049 0.00284157 -0.00737378 -0.00165481 -0.00802203 0.00474089 0.00409052 -0.00788005 0.00589443 0.00346707 0.00187285 0.00420307 0.00698504 0.00783277 0.00865419 0.00549302 0.00737942 0.00415745 0.00502674 -0.00458957 6.90908e-05 0.00123505 0.00476908 0.0052295 0.00565037 0.00146857 0.00599499 0.00312638 -0.00188506 0.00738861 0.00164885 0.000807517 -0.00815822 0.00351206 -0.00263398 -0.00425488 0.00493655 0.000629806 0.00138484 0.00336229 1.3765e-05 -0.00635645 0.00235364 0.0032967 0.000151371 -0.0051976 -0.00692398 7.41218e-05 0.00263241 0.0018271 -0.00548184 -0.00156154 -0.00273118 0.00613217 -0.00343949 -0.00439191 0.000330118 -0.00139846 -0.00432116 -0.00174809 -0.00673123 -0.00731236 0.00291775 -0.00227352 0.0027111 -0.00951164 -0.00956868 -0.00695071 -0.000153157 -0.00304531 -0.00196015 -0.00327421 -0.00335036 -0.00454435 -0.0053927 -0.00745803 -0.000987921
internal_weight=3638.71 3065.73 2059.74 572.982 388.506 352.217 1005.99 1541.46 128.831 36.2896 518.279 209.981 1412.63 413.55 932.807 430.307 314.03 331.067 283.429 255.251 178.475 115.84 58.1286 290.893 73.1833 104.729 82.4829 502.5 437.523 398.753 62.6347 373.304 174.072 66.0895 116.821 81.6083 21.0637 1346.54 51.0442 28.4165 116.277 41.2779 38.7699 64.9769 54.0664 27.9696 70.7022 55.8612 45.611 21.9725 94.3045 45.2137 28.1781 15.1439 11.3999 91.0482 30.5641 23.2385 47.3069 50.9457 36.8902 25.449 10.2502 23.1212 16.27 68.3712 43.4291 11.109 16.8606 26.4268 416.207 412.222 66.4153 14.0555 12.343 9.76633 10.8217 11.7879 23.1375 16.3622 930.335 3.9848
internal_count=2389530 2366966 2031088 22564 21739 15743 335878 1962608 99124 5996 68480 14599 1863484 39201 261528 172973 62881 24073 22226 17514 12083 7782 18546 42138 74350 29279 15128 88555 71309 59975 4301 52420 29207 43485 12931 21745 4070 1819999 12232 9072 110092 7648 11334 17246 6056 20230 80578 15168 9158 16732 93360 54120 4712 5053 5324 92364 9513 6464 6997 38432 29305 7555 6010 7534 14994 78144 52886 5273 14957 5148 551945 547879 76652 9127 6186 4584 11549 11235 20743 5822 1268054 4066
is_linear=0
shrinkage=0.02


end of trees

feature_importances:
feature.KLEN=35
feature.fund__market_cap=15
feature.fund__market_cap_2=14
feature.fund__pb_ratio_lyr=14
feature.IMIN60=10
feature.fund__income_from_main_operations_lyr=10
feature.fund__book_to_market_ratio_lyr=9
feature.fund__ev_ttm=9
feature.MIN20=8
feature.RESI5=8
feature.fund__ev_lf=8
feature.fund__invested_capital_lyr=8
feature.BETA30=7
feature.MAX10=7
feature.MAX5=7
feature.STD10=7
feature.WVMA10=7
feature.WVMA30=7
feature.CORD5=6
feature.MIN10=6
feature.MIN5=6
feature.RESI10=6
feature.RESI30=6
feature.ROC30=6
feature.VMA60=6
feature.VSTD10=6
feature.VWAP0=6
feature.fund__ev_no_cash_ttm=6
feature.fund__invested_capital_lf=6
feature.fund__market_cap_3=6
feature.CORD10=5
feature.CORR30=5
feature.CORR5=5
feature.QTLD10=5
feature.QTLD5=5
feature.RSV10=5
feature.STD30=5
feature.VMA10=5
feature.fund__ep_ratio_ttm=5
feature.CORD20=4
feature.CORR20=4
feature.CORR60=4
feature.HIGH0=4
feature.KMID2=4
feature.KSFT=4
feature.MA30=4
feature.QTLU30=4
feature.ROC60=4
feature.RSQR10=4
feature.STD20=4
feature.VSTD20=4
feature.VSUMP5=4
feature.WVMA60=4
feature.fund__ev_lyr=4
feature.fund__inc_book_per_share_ttm=4
feature.BETA5=3
feature.IMAX20=3
feature.IMAX30=3
feature.IMXD20=3
feature.IMXD30=3
feature.KMID=3
feature.KSFT2=3
feature.LOW0=3
feature.MA10=3
feature.MA20=3
feature.MA5=3
feature.MAX60=3
feature.QTLD60=3
feature.QTLU10=3
feature.QTLU5=3
feature.RSQR20=3
feature.RSV20=3
feature.RSV5=3
feature.RSV60=3
feature.SUMN5=3
feature.SUMP60=3
feature.VMA5=3
feature.VSTD60=3
feature.VSUMD5=3
feature.VSUMP60=3
feature.WVMA20=3
feature.CNTN10=2
feature.CNTN20=2
feature.IMIN20=2
feature.IMXD60=2
feature.KUP2=2
feature.MA60=2
feature.MAX20=2
feature.MIN30=2
feature.QTLU60=2
feature.RESI20=2
feature.ROC20=2
feature.RSQR30=2
feature.RSQR60=2
feature.SUMN10=2
feature.SUMN30=2
feature.SUMP30=2
feature.SUMP5=2
feature.VMA20=2
feature.VMA30=2
feature.VSTD30=2
feature.VSTD5=2
feature.VSUMD10=2
feature.VSUMD30=2
feature.VSUMD60=2
feature.VSUMN20=2
feature.VSUMP10=2
feature.fund__inventory_turnover_ttm=2
feature.BETA20=1
feature.BETA60=1
feature.CNTD10=1
feature.CNTD20=1
feature.CNTN60=1
feature.CORD30=1
feature.CORD60=1
feature.IMAX60=1
feature.IMIN10=1
feature.IMIN5=1
feature.IMXD10=1
feature.KLOW=1
feature.KLOW2=1
feature.KUP=1
feature.MAX30=1
feature.MIN60=1
feature.QTLD20=1
feature.QTLD30=1
feature.QTLU20=1
feature.RANK30=1
feature.RESI60=1
feature.RSQR5=1
feature.RSV30=1
feature.STD5=1
feature.SUMD10=1
feature.SUMD30=1
feature.SUMD60=1
feature.SUMN20=1
feature.SUMN60=1
feature.SUMP10=1
feature.SUMP20=1
feature.VSUMD20=1
feature.VSUMN5=1

parameters:
[boosting: gbdt]
[objective: lambdarank]
[metric: custom]
[tree_learner: serial]
[device_type: cpu]
[data_sample_strategy: bagging]
[data: ]
[valid: ]
[num_iterations: 5000]
[learning_rate: 0.02]
[num_leaves: 127]
[num_threads: 16]
[seed: 42]
[deterministic: 0]
[force_col_wise: 1]
[force_row_wise: 0]
[histogram_pool_size: -1]
[max_depth: 8]
[min_data_in_leaf: 2000]
[min_sum_hessian_in_leaf: 0.001]
[bagging_fraction: 0.7]
[pos_bagging_fraction: 1]
[neg_bagging_fraction: 1]
[bagging_freq: 1]
[bagging_seed: 400]
[bagging_by_query: 0]
[feature_fraction: 0.7]
[feature_fraction_bynode: 1]
[feature_fraction_seed: 30056]
[extra_trees: 0]
[extra_seed: 12879]
[early_stopping_round: 0]
[early_stopping_min_delta: 0]
[first_metric_only: 0]
[max_delta_step: 0]
[lambda_l1: 0]
[lambda_l2: 10]
[linear_lambda: 0]
[min_gain_to_split: 0.02]
[drop_rate: 0.1]
[max_drop: 50]
[skip_drop: 0.5]
[xgboost_dart_mode: 0]
[uniform_drop: 0]
[drop_seed: 17869]
[top_rate: 0.2]
[other_rate: 0.1]
[min_data_per_group: 100]
[max_cat_threshold: 32]
[cat_l2: 10]
[cat_smooth: 10]
[max_cat_to_onehot: 4]
[top_k: 20]
[monotone_constraints: ]
[monotone_constraints_method: basic]
[monotone_penalty: 0]
[feature_contri: ]
[forcedsplits_filename: ]
[refit_decay_rate: 0.9]
[cegb_tradeoff: 1]
[cegb_penalty_split: 0]
[cegb_penalty_feature_lazy: ]
[cegb_penalty_feature_coupled: ]
[path_smooth: 0]
[interaction_constraints: ]
[verbosity: -1]
[saved_feature_importance_type: 0]
[use_quantized_grad: 0]
[num_grad_quant_bins: 4]
[quant_train_renew_leaf: 0]
[stochastic_rounding: 1]
[linear_tree: 0]
[max_bin: 255]
[max_bin_by_feature: ]
[min_data_in_bin: 3]
[bin_construct_sample_cnt: 200000]
[data_random_seed: 175]
[is_enable_sparse: 1]
[enable_bundle: 1]
[use_missing: 1]
[zero_as_missing: 0]
[feature_pre_filter: 1]
[pre_partition: 0]
[two_round: 0]
[header: 0]
[label_column: ]
[weight_column: ]
[group_column: ]
[ignore_column: ]
[categorical_feature: ]
[forcedbins_filename: ]
[precise_float_parser: 0]
[parser_config_file: ]
[objective_seed: 16083]
[num_class: 1]
[is_unbalance: 0]
[scale_pos_weight: 1]
[sigmoid: 1]
[boost_from_average: 1]
[reg_sqrt: 0]
[alpha: 0.9]
[fair_c: 1]
[poisson_max_delta_step: 0.7]
[tweedie_variance_power: 1.5]
[lambdarank_truncation_level: 50]
[lambdarank_norm: 1]
[label_gain: 0,1,2,3,4,5,6,7,8,9]
[lambdarank_position_bias_regularization: 0]
[eval_at: ]
[multi_error_top_k: 1]
[auc_mu_weights: ]
[num_machines: 1]
[local_listen_port: 12400]
[time_out: 120]
[machine_list_filename: ]
[machines: ]
[gpu_platform_id: -1]
[gpu_device_id: -1]
[gpu_use_dp: 0]
[num_gpu: 1]

end of parameters

pandas_categorical:null
